digraph Tree {
node [shape=box, style="filled, rounded", color="black", fontname=helvetica] ;
edge [fontname=helvetica] ;
0 [label="CreditScore <= 42.5\ngini = 0.324\nsamples = 10000\nvalue = [7963, 2037]", fillcolor="#eca16c"] ;
1 [label="CreditScore <= 38.5\ngini = 0.207\nsamples = 7106\nvalue = [6274, 832]", fillcolor="#e89253"] ;
0 -> 1 [labeldistance=2.5, labelangle=45, headlabel="True"] ;
2 [label="Balance <= 99332.02\ngini = 0.171\nsamples = 5564\nvalue = [5039, 525]", fillcolor="#e88e4e"] ;
1 -> 2 ;
3 [label="Age <= 409.0\ngini = 0.124\nsamples = 2930\nvalue = [2735, 195]", fillcolor="#e78a47"] ;
2 -> 3 ;
4 [label="gini = 0.0\nsamples = 2\nvalue = [0, 2]", fillcolor="#399de5"] ;
3 -> 4 ;
5 [label="gini = 0.123\nsamples = 2928\nvalue = [2735, 193]", fillcolor="#e78a47"] ;
3 -> 5 ;
6 [label="Age <= 400.0\ngini = 0.219\nsamples = 2634\nvalue = [2304, 330]", fillcolor="#e99355"] ;
2 -> 6 ;
7 [label="gini = 0.0\nsamples = 4\nvalue = [0, 4]", fillcolor="#399de5"] ;
6 -> 7 ;
8 [label="gini = 0.217\nsamples = 2630\nvalue = [2304, 326]", fillcolor="#e99355"] ;
6 -> 8 ;
9 [label="Balance <= 1884.345\ngini = 0.319\nsamples = 1542\nvalue = [1235, 307]", fillcolor="#eba06a"] ;
1 -> 9 ;
10 [label="Age <= 406.5\ngini = 0.229\nsamples = 562\nvalue = [488, 74]", fillcolor="#e99457"] ;
9 -> 10 ;
11 [label="gini = 0.0\nsamples = 2\nvalue = [0, 2]", fillcolor="#399de5"] ;
10 -> 11 ;
12 [label="gini = 0.224\nsamples = 560\nvalue = [488, 72]", fillcolor="#e99456"] ;
10 -> 12 ;
13 [label="Balance <= 168144.078\ngini = 0.362\nsamples = 980\nvalue = [747, 233]", fillcolor="#eda877"] ;
9 -> 13 ;
14 [label="gini = 0.352\nsamples = 934\nvalue = [721, 213]", fillcolor="#eda673"] ;
13 -> 14 ;
15 [label="gini = 0.491\nsamples = 46\nvalue = [26, 20]", fillcolor="#f9e2d1"] ;
13 -> 15 ;
16 [label="CreditScore <= 65.5\ngini = 0.486\nsamples = 2894\nvalue = [1689, 1205]", fillcolor="#f8dbc6"] ;
0 -> 16 [labeldistance=2.5, labelangle=-45, headlabel="False"] ;
17 [label="CreditScore <= 46.5\ngini = 0.494\nsamples = 2630\nvalue = [1460, 1170]", fillcolor="#fae6d8"] ;
16 -> 17 ;
18 [label="Balance <= 6229.595\ngini = 0.446\nsamples = 1009\nvalue = [670, 339]", fillcolor="#f2c19d"] ;
17 -> 18 ;
19 [label="gini = 0.346\nsamples = 346\nvalue = [269, 77]", fillcolor="#eca572"] ;
18 -> 19 ;
20 [label="gini = 0.478\nsamples = 663\nvalue = [401, 262]", fillcolor="#f6d3ba"] ;
18 -> 20 ;
21 [label="Balance <= 87632.75\ngini = 0.5\nsamples = 1621\nvalue = [790, 831]", fillcolor="#f5fafe"] ;
17 -> 21 ;
22 [label="gini = 0.489\nsamples = 635\nvalue = [365, 270]", fillcolor="#f8decb"] ;
21 -> 22 ;
23 [label="gini = 0.49\nsamples = 986\nvalue = [425, 561]", fillcolor="#cfe7f9"] ;
21 -> 23 ;
24 [label="CreditScore <= 71.5\ngini = 0.23\nsamples = 264\nvalue = [229, 35]", fillcolor="#e99457"] ;
16 -> 24 ;
25 [label="Balance <= 61310.715\ngini = 0.315\nsamples = 158\nvalue = [127, 31]", fillcolor="#eba069"] ;
24 -> 25 ;
26 [label="gini = 0.19\nsamples = 66\nvalue = [59, 7]", fillcolor="#e89050"] ;
25 -> 26 ;
27 [label="gini = 0.386\nsamples = 92\nvalue = [68, 24]", fillcolor="#eead7f"] ;
25 -> 27 ;
28 [label="Age <= 434.5\ngini = 0.073\nsamples = 106\nvalue = [102, 4]", fillcolor="#e68641"] ;
24 -> 28 ;
29 [label="gini = 0.0\nsamples = 1\nvalue = [0, 1]", fillcolor="#399de5"] ;
28 -> 29 ;
30 [label="gini = 0.056\nsamples = 105\nvalue = [102, 3]", fillcolor="#e6853f"] ;
28 -> 30 ;
}